34 64
29 -0.1476 -0.245692 -0.17378 0.0685319 0.276239 -0.0631489 -0.352792 -0.0628521 -0.229469 -0.504979 -0.154898 -0.0627115 -0.365097 0.320516 -0.0164823 0.0185716 -0.119008 0.284583 -0.168025 -0.0651708 -0.169323 -0.0390062 -0.120015 -0.148765 0.288872 0.473292 0.522827 -0.00122349 0.569954 -0.0116431 0.0978071 -0.0835435 0.0591924 -0.376415 0.273845 -0.731411 0.3197 -0.127256 -0.231507 -0.492248 -0.114908 0.0317932 -0.364226 -0.265832 0.451995 0.377595 0.0878303 -0.0184801 -0.215534 -0.267132 -0.244085 -0.380265 0.407982 0.0413466 0.467413 -0.156653 0.37245 0.307415 -0.325322 -0.681778 0.473849 -0.212905 -0.0744531 0.171494
32 -0.125152 -0.0809249 -0.228537 -0.164176 0.358728 0.138466 -0.416304 0.022645 -0.239395 -0.59868 -0.137576 -0.166678 -0.194803 0.296847 -0.394569 0.0727689 0.00540161 0.104559 -0.274892 0.116928 -0.00484646 -0.0447669 -0.144758 0.0139728 0.321391 0.394941 0.659529 0.0397239 0.36266 0.180609 0.298533 0.111111 0.272013 -0.420624 0.422112 -0.862473 0.290493 -0.171451 -0.0728045 -0.533795 0.0483921 -0.0442178 -0.338882 -0.188874 0.270832 0.445115 0.15982 0.110784 -0.0577936 -0.153654 -0.342439 -0.449965 0.293098 -0.045748 0.402589 0.0589219 0.540484 0.413413 -0.346708 -0.850283 0.401996 -0.361392 0.0491893 0.23146
25 -0.149942 -0.207832 -0.218707 -0.0732033 0.464338 0.0852062 -0.510481 -0.0152028 -0.291005 -0.582122 -0.127653 -0.182257 -0.286387 0.3841 -0.0325821 -0.00866997 0.192364 -0.0107798 -0.122275 0.00328895 -0.0966307 0.0295056 -0.0355647 -0.137603 0.352592 0.657423 0.617206 -0.0668101 0.68034 -0.083759 0.191119 -0.0480577 0.16257 -0.517414 0.449641 -0.801787 0.555315 -0.10097 -0.171474 -0.557505 0.0936294 0.123228 -0.308917 -0.478786 0.51603 0.436431 -0.0110116 -0.00562737 -0.167333 -0.277507 -0.389461 -0.349758 0.536903 -0.0175453 0.559771 -0.111097 0.49259 0.244774 -0.377043 -0.896051 0.566714 -0.26669 -0.120812 0.260867
26 -0.20882 -0.118091 -0.237962 -0.0907122 0.540132 0.0984816 -0.540969 -0.119982 -0.362418 -0.735776 -0.105142 -0.178748 -0.271436 0.346116 -0.0377136 -0.0764227 0.254102 -0.0899539 -0.180158 0.0850873 -0.0955374 0.0657569 0.0565199 -0.0453601 0.326426 0.66092 0.700851 -0.0802916 0.643145 -0.104108 0.220843 -0.110561 0.276457 -0.494193 0.498265 -0.799523 0.615598 0.0207598 -0.05648 -0.567272 0.085374 0.111895 -0.283714 -0.413315 0.501909 0.372693 0.0058869 -0.0136973 -0.122393 -0.283382 -0.376245 -0.311573 0.407096 -0.0422164 0.463928 -0.0762041 0.547021 0.266269 -0.308493 -0.899485 0.54274 -0.240512 -0.156101 0.221241
1 0.0650694 -0.257143 -0.140142 0.0604192 0.439482 -0.0931775 -0.301764 -0.0600894 0.00605956 -0.386458 -0.172388 -0.0148843 -0.342107 0.267817 -0.122569 0.0806533 -0.0166196 0.0771629 -0.221402 0.001189 -0.0857282 0.1114 -0.22568 -0.0227637 0.120262 0.314757 0.492033 0.374016 0.515768 -0.0780462 0.270121 -0.160274 0.286007 -0.24536 0.154209 -0.620598 0.271876 0.230368 0.0119115 -0.381511 -0.164777 0.013832 -0.421008 0.116462 0.443681 0.414536 0.448423 0.188447 -0.00991294 -0.267252 -0.458743 -0.490387 0.380319 0.56199 0.629021 -0.309234 0.198709 0.396326 -0.260148 -0.669428 0.400177 -0.0791468 -0.107067 0.174037
2 -0.035003 -0.187539 -0.136377 0.0547064 0.437585 -0.157768 -0.242913 -0.146062 0.00563922 -0.390162 -0.152844 -0.0112873 -0.39307 0.170812 -0.0880209 0.151731 -0.131512 0.121625 -0.258698 0.0118222 -0.0836109 0.151259 -0.204805 0.118938 0.0342838 0.218408 0.436656 0.378395 0.369172 -0.0628383 0.352437 -0.274522 0.32205 -0.173677 0.167637 -0.661447 0.154325 0.244661 0.141429 -0.398997 -0.174634 -0.0190502 -0.457792 0.242316 0.419731 0.46465 0.543829 0.211215 -0.0658873 -0.284463 -0.503544 -0.447753 0.319335 0.574934 0.613405 -0.342758 0.290068 0.537032 -0.23996 -0.546784 0.397641 -0.127909 -0.119732 0.0331816
22 0.0467459 -0.123401 -0.123592 -0.0244281 0.426252 -0.10294 -0.266319 -0.0992703 0.037921 -0.369939 -0.17997 -0.024839 -0.409736 0.30855 -0.223998 0.170774 -0.0168038 0.0415903 -0.366807 0.167184 -0.0715091 0.141206 -0.312121 -0.0400129 0.0761975 0.351103 0.487611 0.381275 0.504384 -0.0178976 0.386064 -0.244846 0.440796 -0.225592 0.219965 -0.766389 0.28366 0.237861 0.0506249 -0.354018 -0.0839909 -0.0303652 -0.378742 0.246732 0.469295 0.531851 0.479274 0.331903 0.0751859 -0.165765 -0.537437 -0.509483 0.313582 0.633401 0.635878 -0.272002 0.166854 0.306094 -0.164403 -0.631015 0.356517 -0.0785248 -0.0919783 0.158223
31 -0.0897984 0.129354 -0.164991 -0.0566439 0.333756 -0.182692 -0.163744 -0.198028 -0.18452 -0.4756 -0.204518 0.042865 -0.432424 0.457573 -0.19822 0.0452372 -0.0401924 -0.00854985 -0.261483 0.267753 0.0553125 0.0786728 -0.22111 -0.265347 0.120082 0.627505 0.71945 0.0632812 0.504297 0.138516 0.195347 -0.327747 0.568136 -0.131679 0.281121 -0.594653 0.49765 0.0692629 -0.120816 -0.0547327 -0.115891 0.117399 -0.430499 0.176672 0.537217 0.53035 0.0747518 0.322732 0.264595 0.0800005 -0.355275 -0.652164 0.284693 0.416296 0.555082 -0.00779504 0.313066 0.243509 -0.0980549 -0.582184 0.429077 0.0935153 -0.0376126 0.30078
18 0.0721365 -0.174193 -0.132379 0.00308553 0.464383 -0.117571 -0.263762 -0.147927 0.0704242 -0.407244 -0.162969 -0.0410111 -0.442836 0.319962 -0.168061 0.176223 0.051981 -0.0202475 -0.296906 0.161348 -0.110714 0.159851 -0.317674 -0.059455 0.0226702 0.345144 0.431761 0.423049 0.541523 -0.0857627 0.3591 -0.286069 0.440368 -0.249272 0.18559 -0.733933 0.31661 0.29632 0.0405414 -0.339533 -0.072259 -0.0436547 -0.319764 0.266137 0.550741 0.532241 0.488197 0.36168 0.086606 -0.185077 -0.592533 -0.50923 0.332769 0.697531 0.643889 -0.318504 0.124802 0.272698 -0.101392 -0.667685 0.384174 -0.0478893 -0.140036 0.136723
7 0.0698585 -0.245303 -0.192093 -0.187609 0.68241 0.060078 -0.560172 0.00490263 -0.0574781 -0.463461 -0.167649 -0.166344 -0.493669 0.367377 -0.337616 0.271736 0.187703 -0.0381171 -0.495589 0.173929 -0.0592393 0.272119 -0.2516 0.0546021 0.219259 0.350958 0.468437 0.435879 0.596536 -0.0848168 0.551341 -0.128126 0.434449 -0.362575 0.368502 -1.00442 0.363779 0.305871 0.209336 -0.672726 0.0821301 -0.0197555 -0.322171 0.0753241 0.381036 0.554791 0.524164 0.267263 -0.0144401 -0.35693 -0.711286 -0.417823 0.466595 0.627576 0.805654 -0.301575 0.243558 0.388018 -0.318197 -0.913965 0.397033 -0.221003 -0.128714 0.0990975
11 0.0553623 -0.180619 -0.153045 -0.199672 0.593058 0.012027 -0.485075 -0.00601373 -0.0471321 -0.335484 -0.16874 -0.131151 -0.505705 0.307723 -0.291454 0.305292 0.158581 -0.0333671 -0.460344 0.158238 -0.0415346 0.291017 -0.227638 0.025023 0.192167 0.350368 0.437296 0.41108 0.574321 -0.0593378 0.563313 -0.204002 0.469744 -0.282516 0.337139 -0.954671 0.32446 0.307658 0.220483 -0.594919 0.0668898 -0.00832754 -0.350088 0.168543 0.365007 0.581016 0.49608 0.301496 0.0234927 -0.287395 -0.660799 -0.399298 0.434172 0.646502 0.782319 -0.258894 0.225545 0.374555 -0.294082 -0.800908 0.375173 -0.177335 -0.115673 0.0791378
12 0.0514038 -0.164845 -0.137688 -0.188353 0.51226 0.0823528 -0.456856 0.0102277 -0.0510294 -0.349421 -0.132992 -0.129215 -0.411388 0.263134 -0.323733 0.247236 0.129683 0.0030909 -0.474471 0.158526 -0.0519359 0.225787 -0.20151 0.0855892 0.186613 0.235827 0.349584 0.36542 0.458597 -0.0268134 0.497916 -0.0937085 0.373288 -0.268353 0.305844 -0.835087 0.22986 0.262513 0.216338 -0.583101 0.0801223 -0.0549096 -0.235752 0.11623 0.242281 0.437172 0.474446 0.229704 -0.0205642 -0.27143 -0.550958 -0.304891 0.308716 0.475006 0.601259 -0.202479 0.186825 0.320432 -0.243218 -0.708919 0.271255 -0.212622 -0.0705683 0.0583645
20 -0.111973 -0.146162 -0.191829 -0.0604455 0.472724 -0.180017 -0.192126 -0.137282 0.00743806 -0.389104 -0.118744 -0.151979 -0.550664 0.338955 -0.165777 0.376099 -0.124137 0.100314 -0.324803 0.170997 -0.0329915 0.164417 -0.326742 -0.114036 -0.00476203 0.384686 0.366228 0.264712 0.371143 0.0244859 0.370902 -0.428252 0.402853 -0.197782 0.247239 -0.727161 0.288477 0.0236637 0.0281398 -0.202474 0.0663739 0.0551261 -0.330743 0.17293 0.478198 0.640264 0.284283 0.387146 0.0629893 -0.0196569 -0.579085 -0.393522 0.400994 0.491097 0.563603 -0.223862 0.322762 0.366291 -0.162086 -0.510773 0.443335 -0.112142 -0.106015 0.0148306
9 -0.208317 0.0886585 -0.0828372 -0.17502 0.192371 -0.0544173 -0.325618 -0.183406 -0.400177 -0.369252 -0.0835264 0.0205488 -0.567367 0.162703 -0.156708 0.200784 -0.0867409 0.250447 -0.354326 0.0754839 -0.091582 0.159329 0.0783271 -0.0263149 0.310201 0.373822 0.513774 0.00591097 0.40041 0.179722 0.345115 -0.296214 0.444042 -0.0712765 0.316095 -0.789417 0.148279 0.156527 0.163663 -0.510597 -0.0861295 -0.0462767 -0.340613 0.226028 0.258058 0.497781 0.127702 0.158689 -0.0300699 -0.181706 -0.304451 -0.426672 0.17463 0.208013 0.563899 0.124985 0.536571 0.558576 -0.226621 -0.699137 0.369488 -0.181354 -0.0455438 -0.0590331
3 -0.0467272 -0.135827 -0.174116 0.123229 0.296737 -0.0186253 -0.228979 -0.147085 -0.158726 -0.636343 -0.125591 -0.0130182 -0.242694 0.28451 -0.255837 -0.110316 -0.140441 0.185671 -0.287584 0.0929103 -0.102165 -0.0613051 -0.131279 0.0217624 0.160828 0.286061 0.72397 0.28061 0.473339 0.0809001 0.183256 -0.12301 0.367808 -0.27985 0.213769 -0.659734 0.294016 0.177625 -0.0397257 -0.412055 -0.272128 -0.0776262 -0.360088 0.127187 0.414392 0.273875 0.415778 0.119576 -0.00821441 -0.248906 -0.328275 -0.653922 0.189873 0.336694 0.417453 -0.172611 0.339507 0.529715 -0.17542 -0.780111 0.41076 -0.137104 -0.0667668 0.200564
4 -0.00616027 -0.194581 -0.0971743 0.118133 0.414069 -0.139937 -0.282444 -0.236512 0.0268733 -0.533427 -0.179868 0.0654009 -0.386813 0.0990815 -0.0929618 0.0640041 -0.0956349 0.108795 -0.202342 0.0111917 -0.173153 0.0720878 -0.189966 0.184639 0.0557418 0.203803 0.490963 0.40081 0.404051 -0.0878883 0.317722 -0.184017 0.334077 -0.232627 0.153512 -0.707353 0.0859881 0.31347 0.12273 -0.482342 -0.239568 -0.146817 -0.458059 0.3241 0.477206 0.434779 0.671528 0.214973 -0.0984868 -0.384846 -0.536869 -0.535314 0.202057 0.61629 0.619879 -0.372885 0.303021 0.556306 -0.206193 -0.708818 0.39281 -0.180535 -0.136775 0.0734774
8 -0.026258 -0.304807 -0.116129 0.120121 0.328041 -0.103099 -0.282899 -0.193954 -0.101958 -0.465211 -0.0526765 -0.0376276 -0.478137 0.168289 -0.0380001 0.125457 -0.0655572 0.208774 -0.229776 -0.0732366 -0.244117 0.115684 -0.0829652 0.00938745 0.119537 0.212996 0.467027 0.43832 0.586232 -0.0870295 0.272659 -0.359969 0.343583 -0.235313 0.137839 -0.769245 0.195895 0.38916 0.0919823 -0.562193 -0.247727 -0.117698 -0.305398 0.278654 0.481918 0.388716 0.479967 0.182244 -0.113145 -0.381454 -0.447291 -0.486291 0.253468 0.569138 0.551029 -0.299302 0.243356 0.552932 -0.132035 -0.77107 0.429476 -0.132336 -0.190652 -0.0444712
34 -0.217643 0.193392 -0.14857 -0.113666 0.284811 -0.0410702 -0.179337 -0.117667 -0.155141 -0.388879 -0.144442 -0.011233 -0.137727 0.182903 -0.153879 -0.0216135 -0.0996225 -0.0123886 -0.138533 0.188263 0.107841 -0.0288382 -0.0667836 0.0542433 0.175145 0.545987 0.755653 -0.0721068 0.280474 0.145337 0.290233 -0.150928 0.395478 -0.238603 0.409435 -0.655808 0.314772 -0.136065 -0.00419272 -0.249996 -0.0352003 0.0485634 -0.504236 0.005461 0.398111 0.504314 0.210453 0.172442 0.0220073 -0.0766332 -0.383307 -0.471067 0.250744 0.148119 0.460672 -0.0567173 0.536915 0.41265 -0.252552 -0.562874 0.452998 -0.188756 -0.0239173 0.215426
33 -0.203248 0.115045 -0.119431 -0.100826 0.183965 -0.0750231 -0.255439 -0.155298 -0.368521 -0.396317 -0.117365 0.0235467 -0.352125 0.245891 -0.0474307 -0.0122484 -0.0332521 0.106224 -0.156309 0.0890837 0.00486819 0.0309385 0.0712257 -0.147469 0.304055 0.598992 0.702444 -0.119493 0.483393 0.123996 0.189031 -0.232066 0.383019 -0.18798 0.35933 -0.667009 0.382042 -0.00861649 -0.0518574 -0.33111 -0.0834013 0.0704864 -0.399774 -0.0205704 0.414722 0.463606 -0.00638781 0.107328 -0.00276797 -0.147756 -0.30461 -0.520394 0.326614 0.166469 0.573491 0.0367571 0.532727 0.430337 -0.258088 -0.722564 0.490151 -0.114893 -0.0660382 0.166631
21 -0.215764 0.175569 -0.165193 -0.141733 0.24936 -0.105205 -0.240319 -0.105268 -0.367613 -0.406959 -0.181195 0.0216986 -0.399731 0.348737 -0.232747 0.0425097 -0.183631 0.197658 -0.330172 0.16133 0.0899311 0.0481772 -0.0781992 -0.129774 0.318647 0.632727 0.84717 -0.0624857 0.464727 0.253336 0.298116 -0.236676 0.503348 -0.177261 0.419106 -0.789909 0.4055 -0.0711005 -0.0451741 -0.323523 -0.111261 0.126483 -0.576282 0.0405258 0.380504 0.582851 0.062372 0.176693 0.0920083 -0.0163417 -0.258827 -0.581441 0.338953 0.155342 0.588713 0.111925 0.569711 0.466873 -0.313417 -0.624945 0.4692 -0.0968579 0.037867 0.243989
19 -0.213699 0.169616 -0.172313 -0.151339 0.240868 -0.106969 -0.224757 -0.101154 -0.334866 -0.391375 -0.174094 0.00641263 -0.378404 0.326569 -0.229754 0.0855746 -0.154795 0.168669 -0.285262 0.141485 0.0898523 0.0640314 -0.0923067 -0.137536 0.304287 0.633439 0.832744 -0.0556638 0.452032 0.265077 0.324474 -0.275879 0.526727 -0.178413 0.424483 -0.806547 0.414244 -0.0956477 -0.0494842 -0.301012 -0.0988031 0.127607 -0.578031 0.0567652 0.400242 0.615406 0.0457445 0.207559 0.116326 0.0281062 -0.248871 -0.547867 0.319404 0.122685 0.535308 0.131699 0.559794 0.443011 -0.291163 -0.607094 0.469994 -0.0940989 0.0361251 0.229933
14 -0.080026 -0.267213 -0.186918 0.111001 0.33244 -0.112984 -0.16898 -0.105227 -0.114275 -0.442055 -0.0511429 -0.118198 -0.369922 0.247601 -0.107422 0.106875 -0.186505 0.221334 -0.225831 -0.0340074 -0.0751701 0.065969 -0.110157 -0.0317119 0.080194 0.208532 0.506985 0.352527 0.426316 0.00276134 0.197936 -0.309628 0.296636 -0.206495 0.162786 -0.634602 0.281332 0.174303 0.0396451 -0.367291 -0.198622 0.0188196 -0.353758 0.134117 0.376258 0.324083 0.327311 0.142773 -0.0539775 -0.230167 -0.402748 -0.50101 0.358603 0.448599 0.491137 -0.273919 0.316564 0.602979 -0.216214 -0.6142 0.420241 -0.0951405 -0.121029 -0.000288762
13 0.131454 -0.339043 -0.148394 0.0532409 0.436656 0.0555756 -0.336745 0.0479937 -0.0762623 -0.334398 -0.0584547 -0.116873 -0.24856 0.239173 -0.210725 0.0339275 0.0637206 0.0551235 -0.350685 -0.0199614 -0.0532831 0.178845 -0.0848027 0.0601027 0.167987 0.110866 0.481806 0.556077 0.550354 -0.0957846 0.304262 -0.121995 0.330811 -0.244071 0.158089 -0.679759 0.340964 0.450233 0.188585 -0.577504 -0.189545 0.00100718 -0.293998 0.113197 0.252002 0.195682 0.503442 0.0687852 -0.038816 -0.382582 -0.447737 -0.460894 0.369056 0.60575 0.598256 -0.332196 0.12109 0.527007 -0.278598 -0.752124 0.311164 -0.0773539 -0.120803 0.0659371
17 0.031697 -0.229046 -0.194124 -0.18711 0.631509 0.0447707 -0.557846 -0.00978089 -0.11416 -0.460296 -0.166248 -0.151552 -0.546747 0.379212 -0.32847 0.271415 0.15353 0.0222195 -0.521583 0.159716 -0.0717482 0.270031 -0.225102 0.00599007 0.268714 0.418452 0.562339 0.42956 0.678338 -0.0498333 0.575543 -0.184458 0.490341 -0.358635 0.397268 -1.11186 0.387988 0.318672 0.199638 -0.729005 0.0378333 -0.0195454 -0.385902 0.107627 0.415854 0.60483 0.529725 0.287195 -0.0170561 -0.366628 -0.719871 -0.496003 0.497432 0.659652 0.863501 -0.28019 0.29099 0.461243 -0.341858 -1.00418 0.453457 -0.239506 -0.131616 0.101805
6 0.0375445 -0.237709 -0.193098 -0.197601 0.683005 0.0173736 -0.537675 -0.0382335 -0.0869488 -0.45288 -0.162769 -0.174147 -0.586468 0.365451 -0.316397 0.333644 0.168722 -0.0301178 -0.497211 0.16795 -0.0449041 0.303269 -0.222918 0.0231927 0.184491 0.34215 0.430617 0.433302 0.580719 -0.081072 0.557051 -0.218463 0.468362 -0.293542 0.332729 -0.971354 0.331034 0.337641 0.248361 -0.606159 0.0874374 -0.0114067 -0.321022 0.168295 0.367429 0.574907 0.497053 0.310337 0.0168603 -0.317969 -0.72224 -0.422294 0.461102 0.687485 0.812746 -0.274244 0.254972 0.431844 -0.292374 -0.880072 0.401814 -0.18885 -0.13598 0.0459015
5 0.0546796 -0.176774 -0.172499 -0.239007 0.636453 0.048336 -0.539987 0.00613611 -0.0717733 -0.395615 -0.18696 -0.151442 -0.533172 0.359043 -0.350671 0.311788 0.17298 -0.0303678 -0.507948 0.193677 -0.0264576 0.285445 -0.249433 0.0372983 0.221921 0.373418 0.448133 0.382948 0.568201 -0.0499284 0.588474 -0.149448 0.455938 -0.313569 0.375311 -1.00336 0.324424 0.277032 0.219417 -0.638308 0.107061 -0.0141874 -0.333053 0.118327 0.351376 0.590603 0.502272 0.294926 0.0100704 -0.304142 -0.68961 -0.392134 0.453133 0.620043 0.801262 -0.254609 0.231638 0.346264 -0.314716 -0.863699 0.384138 -0.216394 -0.101855 0.100371
30 -0.369141 0.212043 -0.251357 -0.186198 0.442176 -0.0368029 -0.29725 -0.214373 -0.433001 -0.614947 -0.0762617 -0.135715 -0.330746 0.311131 -0.102527 0.0167482 0.0103211 -0.0560944 -0.228129 0.241184 0.132406 0.0909599 0.117124 -0.0353736 0.233535 0.691804 0.817788 -0.181582 0.41206 0.117416 0.29889 -0.354254 0.542315 -0.263348 0.571969 -0.761211 0.607745 -0.0707991 0.0749706 -0.291605 0.0576381 0.18656 -0.447193 -0.114528 0.448831 0.516587 -0.0420627 0.146141 0.0507647 -0.076138 -0.444487 -0.477172 0.374671 0.0882555 0.546222 0.0379114 0.743791 0.518322 -0.281885 -0.7447 0.597452 -0.150044 -0.0985211 0.139581
24 -0.323285 0.0791757 -0.224986 -0.104628 0.339719 -0.068991 -0.263081 -0.17224 -0.413657 -0.538782 -0.0758059 -0.112158 -0.376524 0.302611 -0.0668249 0.0524218 -0.0619002 0.0868868 -0.206965 0.106148 0.0456025 0.0820308 0.0688851 -0.102124 0.257643 0.64473 0.782349 -0.109302 0.477391 0.112212 0.241394 -0.357102 0.427416 -0.237334 0.45884 -0.754484 0.518196 -0.0393957 0.00604165 -0.337181 -0.0210913 0.166621 -0.445013 -0.107607 0.453354 0.502928 -0.040253 0.116185 0.00300781 -0.0864757 -0.337871 -0.45253 0.386393 0.0696035 0.502761 0.0369574 0.670826 0.526478 -0.293037 -0.684239 0.562926 -0.12897 -0.0907296 0.106311
28 -0.400116 -0.0405131 -0.238554 0.0367358 0.380177 -0.0926599 -0.24767 -0.310174 -0.341775 -0.722863 -0.00838001 -0.164787 -0.418154 0.251871 0.0701827 0.0188674 -0.134121 0.154574 -0.154828 0.0628035 -0.131576 -0.00212435 0.0891917 0.0190865 0.141772 0.564292 0.697445 -0.0641359 0.489013 -0.0265446 0.207782 -0.458474 0.345968 -0.373612 0.457735 -0.788862 0.487197 -0.0461335 -0.0106379 -0.410117 -0.0277707 0.0805852 -0.347213 -0.144764 0.590182 0.454569 0.0838259 0.0832626 -0.169177 -0.231236 -0.439063 -0.392274 0.343778 0.0462932 0.399101 -0.143476 0.694959 0.551167 -0.208875 -0.719024 0.64579 -0.24541 -0.199691 -0.0111233
15 -0.200054 0.197319 -0.161911 -0.193107 0.222287 -0.0747697 -0.226991 -0.0581004 -0.342826 -0.320295 -0.155882 0.000812083 -0.353653 0.318263 -0.240508 0.0767685 -0.126249 0.130454 -0.300314 0.153967 0.120833 0.0744106 -0.063169 -0.129627 0.31394 0.589638 0.786044 -0.0621959 0.409157 0.264466 0.318554 -0.220136 0.510842 -0.149228 0.411868 -0.752866 0.382643 -0.0723024 -0.00927551 -0.286069 -0.0678697 0.127678 -0.540251 0.0429272 0.34028 0.590189 0.0216409 0.199457 0.12155 0.0166125 -0.269233 -0.552096 0.338919 0.149483 0.570881 0.150301 0.576406 0.474535 -0.312228 -0.620626 0.452151 -0.0951896 0.0419275 0.219656
10 -0.291114 -0.125259 -0.153242 0.0572206 0.138768 -0.194592 -0.191135 -0.190578 -0.300217 -0.442349 -0.0833748 -0.0481266 -0.499904 0.196869 0.00905258 0.168047 -0.31189 0.418839 -0.159512 -0.095599 -0.157555 -0.00985554 -0.0269359 -0.130119 0.225068 0.413796 0.547994 0.0082013 0.423396 0.121027 0.152669 -0.377929 0.208466 -0.195477 0.229466 -0.74581 0.172537 -0.0758308 -0.107159 -0.411705 -0.192971 -0.0157139 -0.428586 0.0646804 0.44774 0.51251 0.0759017 0.111495 -0.183659 -0.193676 -0.274458 -0.463031 0.333584 0.144592 0.476247 -0.0644347 0.580519 0.636938 -0.262738 -0.63908 0.53133 -0.21462 -0.0823962 -0.0329595
27 -0.351961 0.0754881 -0.256411 -0.13299 0.40122 -0.157531 -0.209833 -0.154529 -0.278522 -0.495856 -0.109504 -0.142046 -0.419458 0.311229 -0.0976268 0.1956 -0.193957 0.124047 -0.195193 0.133504 0.0947923 0.0673844 -0.0906985 -0.0827311 0.159353 0.618895 0.702513 -0.0787119 0.344975 0.153837 0.312872 -0.409672 0.430072 -0.250294 0.449194 -0.788458 0.446621 -0.203937 -0.0179063 -0.229935 0.0273446 0.171095 -0.545722 -0.0404028 0.480081 0.660286 0.0507908 0.233156 0.0149703 -0.0220353 -0.463192 -0.465151 0.460665 0.179807 0.571477 -0.0660759 0.676282 0.555091 -0.313562 -0.610379 0.60737 -0.176715 -0.067955 0.103322
16 -0.180128 0.166228 -0.17254 -0.170019 0.254321 -0.0523509 -0.239872 -0.0358431 -0.341994 -0.361684 -0.171421 -0.0163582 -0.309063 0.34688 -0.25583 0.0325863 -0.117362 0.112469 -0.277869 0.164866 0.149661 0.0503911 -0.0711304 -0.134941 0.310062 0.599497 0.811892 -0.069744 0.409505 0.255796 0.284771 -0.166283 0.48633 -0.184151 0.412745 -0.724842 0.427324 -0.101958 -0.0408886 -0.276207 -0.0701453 0.142888 -0.535047 -0.0131976 0.330602 0.537364 0.0113353 0.173802 0.123894 0.00784719 -0.264794 -0.584977 0.364743 0.129225 0.572403 0.131399 0.56581 0.453677 -0.323893 -0.643751 0.464591 -0.0970144 0.0450538 0.275633
23 -0.239435 0.192778 -0.146328 -0.187008 0.199175 -0.116718 -0.245239 -0.0946702 -0.381872 -0.334951 -0.183944 0.0270305 -0.41208 0.324116 -0.159457 0.0980439 -0.117119 0.152989 -0.250669 0.143971 0.0902408 0.063583 -0.0388658 -0.19229 0.323983 0.652515 0.728203 -0.167522 0.42846 0.239901 0.253797 -0.235968 0.433439 -0.132495 0.395468 -0.728315 0.376574 -0.117553 -0.0651764 -0.27258 -0.0602057 0.123103 -0.521911 0.0127143 0.364581 0.598707 -0.0450846 0.177259 0.0909812 0.00485448 -0.244633 -0.51244 0.347615 0.125297 0.58541 0.144736 0.560269 0.415954 -0.30278 -0.604848 0.45597 -0.0911185 0.0307287 0.214864
