34 32
11 -0.217056 0.126069 0.403251 -0.531417 -0.215666 0.172027 0.106438 0.386617 -0.0533922 0.32792 -0.160559 0.295636 -0.746744 -0.178961 0.566822 0.318011 -0.0502158 -0.406958 0.472571 -0.192163 -0.481469 0.301182 0.211507 0.340049 -0.178172 0.613156 -0.116342 0.277219 0.253249 0.448787 0.254415 1.06437
5 -0.38166 0.149085 0.400419 -0.585271 -0.161805 0.19551 0.179655 0.340589 -0.0558075 0.270634 -0.208876 0.225475 -0.775431 -0.076369 0.52325 0.402409 -0.0982712 -0.423748 0.409367 -0.164563 -0.49136 0.307766 0.210077 0.348874 -0.333813 0.618945 -0.0657718 0.277528 0.250946 0.604138 0.260719 1.11621
7 -0.283511 0.143138 0.425745 -0.625521 -0.28671 0.207637 0.0555932 0.477767 -0.0203269 0.400881 -0.267232 0.343045 -0.787643 -0.131097 0.722899 0.30792 -0.0400169 -0.46646 0.561713 -0.194437 -0.480697 0.378255 0.276943 0.324701 -0.194738 0.718586 -0.0902069 0.268555 0.312674 0.39338 0.261921 1.11976
1 -0.35578 0.193662 0.0936028 -0.0799085 -0.311673 -0.124289 -0.170014 0.125186 -0.0926545 0.337821 -0.0289799 0.0285802 -0.642289 -0.224213 0.317153 0.501933 -0.194399 -0.551578 0.472236 0.0117081 -0.476656 -0.000841911 -0.00102515 0.376084 -0.133427 0.490858 -0.0602749 0.394197 0.340782 0.39922 0.300228 0.725661
22 -0.104249 0.116135 0.279111 0.0893698 -0.454431 -0.231093 -0.0257185 0.496948 -0.101537 0.333465 0.200787 0.322256 -0.606814 -0.393912 0.281971 0.260326 0.033556 -0.33642 0.35242 -0.249878 -0.714179 0.0380311 -0.0510049 0.193428 0.288061 0.646452 -0.200796 0.180357 0.3711 0.512214 0.314188 0.538228
6 -0.379275 0.095043 0.440139 -0.592806 -0.276102 0.239997 0.0938872 0.356486 -0.0353581 0.350815 -0.27084 0.286533 -0.876865 -0.115793 0.614502 0.362271 -0.0881141 -0.424372 0.560719 -0.162159 -0.509097 0.435008 0.306292 0.385534 -0.277467 0.647119 -0.0704728 0.338872 0.348018 0.54174 0.200946 1.25472
17 -0.445878 -0.0131961 0.543154 -0.656654 -0.296843 0.331724 0.109594 0.34998 -0.0911005 0.362191 -0.280793 0.245788 -1.06309 -0.224797 0.626307 0.372625 -0.132955 -0.325603 0.592248 -0.16487 -0.533703 0.587851 0.353477 0.487897 -0.352678 0.628043 -0.106561 0.391648 0.363982 0.677637 0.0856965 1.49814
2 -0.127719 0.226826 0.0253178 -0.109562 -0.404159 -0.18882 -0.290591 0.578748 -0.107941 0.49923 0.0655724 0.19004 -0.412322 -0.431689 0.618003 0.326902 -0.123 -0.603041 0.418408 -0.0601942 -0.44479 -0.0666531 -0.146677 0.158035 0.189982 0.591692 -0.108592 0.203459 0.293244 0.0670402 0.523744 0.275021
3 -0.142412 0.20268 -0.02499 -0.0575675 -0.389984 -0.117442 -0.285611 0.45542 -0.0670012 0.486979 0.210295 -0.00182421 -0.292499 -0.663494 0.463451 0.303128 -0.0949132 -0.625269 0.531576 -0.00454095 -0.405851 -0.11705 -0.262838 0.145485 0.164001 0.216056 -0.0107089 0.370632 0.230117 0.05193 0.613169 0.318117
14 -0.0345245 -0.00533398 -0.0331268 0.275254 -0.455651 -0.344162 -0.455981 0.269529 -0.134085 0.396447 0.0774956 0.19623 -0.637519 -0.618864 0.638436 0.267445 -0.272333 -0.39904 0.3203 -0.0828769 -0.386147 -0.198556 0.00470703 0.368421 0.329709 0.579072 -0.0755671 0.270212 0.297539 -0.112358 0.430676 0.333783
4 -0.209739 0.354831 -0.049265 -0.216403 -0.506802 -0.177778 -0.22932 0.569645 -0.215425 0.458414 0.0187825 0.177164 -0.403353 -0.345601 0.546678 0.525379 -0.0783894 -0.782132 0.375184 -0.0232114 -0.574157 -0.0689007 -0.24738 0.13193 0.0406809 0.740901 -0.233589 0.129043 0.303176 0.140328 0.41173 0.210226
13 0.131297 0.383226 0.215187 -0.147943 -0.233355 -0.100711 -0.236802 0.278841 0.0633526 0.474305 0.0110606 0.425257 -0.521179 -0.15275 0.573377 0.317918 0.0248543 -0.779831 0.779405 -0.131644 -0.415729 -0.116598 0.0743601 0.409127 0.15288 0.595486 -0.079086 0.395987 0.324955 -0.0432993 0.507181 0.777114
18 -0.108449 0.204976 0.303593 0.00628755 -0.486286 -0.230477 -0.0146883 0.634835 -0.0968675 0.411213 0.151427 0.407565 -0.555962 -0.273553 0.357989 0.259087 0.0899859 -0.416945 0.382584 -0.254306 -0.751809 0.0809907 -0.0716431 0.110635 0.308186 0.782005 -0.238536 0.0911737 0.416502 0.495377 0.31702 0.470617
28 -0.148191 -0.214779 -0.0796298 -0.0364273 -0.151665 -0.232318 -0.230607 0.47626 -0.188668 0.322014 0.36144 -0.0598618 -0.548817 -1.13757 0.809758 0.205506 -0.527376 -0.189427 -0.0769834 -0.119426 -0.285647 -0.258123 -0.20454 0.291717 0.129978 0.216447 0.041135 0.347866 -0.0360171 0.0769115 0.839428 0.282952
10 -0.21427 -0.204176 -0.186784 0.0738348 -0.369919 -0.273982 -0.524234 0.48172 -0.200376 0.435912 0.0577347 -0.101868 -0.592356 -0.911031 0.855421 0.234616 -0.533363 -0.236051 0.0400273 -0.0104567 -0.193713 -0.225947 -0.0866787 0.280104 0.219554 0.422021 0.0150618 0.224879 0.143693 -0.111708 0.608994 0.0700538
8 -0.00411014 0.286515 0.144557 0.144251 -0.151139 -0.416475 -0.288809 0.401838 -0.040147 0.438258 0.154423 0.317344 -0.580298 -0.120263 0.53422 0.352088 -0.210023 -0.560843 0.434727 -0.138466 -0.440164 -0.310565 -0.0154671 0.350843 0.238637 0.772859 -0.0563164 0.29173 0.293672 0.249363 0.647131 0.47373
20 -0.178381 -0.124797 0.0990587 0.147629 -0.574972 -0.224987 -0.132933 0.403885 -0.132932 0.300599 0.164994 0.248244 -0.613215 -0.739284 0.473555 0.172108 -0.111245 -0.158703 0.110851 -0.183227 -0.622587 0.123402 -0.0310244 0.18575 0.337952 0.516407 -0.211065 0.134612 0.313568 0.218395 0.226338 0.342957
12 -0.00391957 0.174018 0.319822 -0.386561 -0.274527 0.073298 0.0551135 0.527812 -0.0608533 0.328329 -0.00277992 0.349159 -0.552992 -0.304383 0.547282 0.239407 0.053248 -0.457889 0.391253 -0.273051 -0.497836 0.124597 0.0483133 0.218617 0.0601153 0.611586 -0.172512 0.158229 0.203021 0.280587 0.346578 0.68685
32 -0.0618708 -0.27305 0.208297 -0.284924 -0.181171 0.0837694 -0.0868017 0.548926 -0.0470868 0.306059 0.132886 -0.0414649 -0.558601 -0.925988 0.680347 -0.01604 -0.258539 -0.0503617 0.116522 -0.240035 -0.202141 -0.0315692 0.0261222 0.213907 0.150615 0.154056 0.0622651 0.266925 -0.00720556 0.179401 0.608052 0.496604
26 -0.0513688 -0.309369 0.134579 -0.367222 -0.0560191 0.093776 0.0944347 0.518291 -0.123238 0.221775 0.500367 -0.268785 -0.538837 -1.48357 0.586204 0.10389 -0.33935 -0.11361 -0.0931337 -0.343784 -0.346448 -0.272694 -0.250659 0.256273 0.0578899 -0.143223 0.0388378 0.426951 -0.224046 0.399426 0.90296 0.544653
33 -0.286164 -0.226538 0.059519 0.0567139 -0.308054 -0.144786 -0.265576 0.480219 -0.0565103 0.396612 0.239721 -0.148516 -0.51435 -0.943085 0.528623 0.0856621 -0.34235 -0.0802086 0.171387 -0.100843 -0.314967 -0.0596683 -0.0846935 0.178469 0.245016 0.0951274 0.0856862 0.336027 0.168499 0.288927 0.617794 0.35482
23 -0.425045 -0.432208 0.0998413 0.0493781 -0.368824 -0.0373637 -0.490511 0.710034 0.0101316 0.555675 0.0699002 -0.308421 -0.473948 -1.0257 0.699776 -0.154361 -0.411318 0.150583 0.29988 -0.0231441 -0.11035 0.11398 0.0066997 0.0518828 0.354794 -0.0387634 0.282074 0.341287 0.257818 0.221527 0.670519 0.237594
34 -0.319974 -0.140458 0.0824478 -0.120557 -0.253473 -0.0855174 -0.249093 0.690565 -0.060857 0.478209 0.282463 -0.27162 -0.402313 -0.952061 0.534498 0.111832 -0.329185 -0.181771 0.230387 -0.0936432 -0.293812 -0.107915 -0.222698 0.0801642 0.195974 0.0550531 0.131856 0.357457 0.131333 0.416879 0.805214 0.271665
30 -0.364645 -0.452167 0.0866114 -0.0297345 -0.330068 -0.0652505 -0.244262 0.798654 -0.0282443 0.477906 0.417528 -0.157121 -0.467114 -1.45028 0.807308 -0.133161 -0.435559 0.128631 0.0701034 -0.159041 -0.315781 0.117678 -0.161491 0.0579887 0.367157 -0.139751 0.20406 0.400158 0.0819739 0.236481 0.855177 0.31609
27 -0.308615 -0.452638 0.077385 0.0786511 -0.515479 -0.0788974 -0.31959 0.544834 -0.033191 0.441053 0.250775 -0.115149 -0.610315 -1.3769 0.688939 -0.0648247 -0.359621 0.105827 0.106826 -0.159646 -0.380642 0.135455 -0.0379153 0.164562 0.391634 0.0060887 0.0681283 0.36027 0.21932 0.170288 0.556944 0.384987
24 -0.309405 -0.450529 0.0860829 -0.0406375 -0.292371 -0.0603703 -0.346166 0.661045 -0.0573638 0.456541 0.278448 -0.298725 -0.572507 -1.35625 0.740405 -0.0426863 -0.482964 0.0857338 0.0927174 -0.144859 -0.210372 -0.056307 -0.0872158 0.17537 0.290266 -0.0675827 0.20152 0.417679 0.0851777 0.269582 0.835808 0.355613
9 -0.224056 -0.19484 0.146301 -0.168605 -0.2396 -0.0319242 -0.26821 0.664751 -0.107959 0.399589 -0.0149165 -0.0181431 -0.485896 -0.553853 0.726896 0.0238954 -0.294987 -0.066567 0.194724 -0.101309 -0.14569 0.0517062 0.0340552 0.112695 0.154841 0.380042 0.10187 0.153255 0.135428 0.152006 0.51738 0.279516
19 -0.451893 -0.363995 0.0911155 0.0480962 -0.408518 -0.0484032 -0.512873 0.683958 0.0282377 0.58075 0.0394982 -0.274093 -0.47723 -0.903212 0.655966 -0.108814 -0.371741 0.0814519 0.34125 -2.51667e-05 -0.113566 0.141036 0.0221158 0.0688865 0.353119 0.00269627 0.250576 0.323688 0.312315 0.213587 0.617886 0.258916
21 -0.364863 -0.377278 0.0332284 0.0916181 -0.492537 -0.0617141 -0.510656 0.623007 0.00304647 0.538999 0.115125 -0.255649 -0.48957 -1.16104 0.651238 -0.0733283 -0.351491 0.031438 0.303776 -0.037731 -0.220618 0.0952018 -0.0274457 0.101113 0.392271 -0.0397326 0.18645 0.367766 0.299101 0.133219 0.599812 0.258106
29 -0.0905857 -0.171327 -0.0661266 -0.180851 -0.262368 -0.0687363 -0.309692 0.227094 -0.205733 0.295619 0.0673693 -0.283998 -0.698039 -1.01398 0.621223 0.344098 -0.457652 -0.336716 0.0355473 -0.118407 -0.224704 -0.375832 -0.0851601 0.451049 -0.0166605 0.279226 -0.0332257 0.351758 0.0128091 0.127044 0.597117 0.386812
31 -0.386321 -0.131816 0.0738317 0.335927 -0.554514 -0.272245 -0.39947 0.494662 -0.0438699 0.495945 0.208351 -0.11197 -0.47347 -0.736977 0.304729 0.117498 -0.196089 -0.133756 0.405504 -0.00852987 -0.44764 0.0455434 -0.100735 0.0922742 0.408741 0.194923 0.0571377 0.317422 0.436735 0.371106 0.438657 0.276911
15 -0.470119 -0.404098 0.135352 -0.00537132 -0.399304 -0.00371021 -0.464198 0.711648 0.00918615 0.534205 0.0136002 -0.312916 -0.489079 -0.929389 0.640083 -0.113508 -0.372354 0.127046 0.307411 -0.0210037 -0.103849 0.172376 0.0295106 0.0507418 0.313524 -0.0145636 0.261664 0.309346 0.277678 0.281992 0.600487 0.29715
16 -0.41994 -0.409415 0.09802 0.04569 -0.439502 -0.0246357 -0.447505 0.657832 0.0180161 0.524771 0.0646266 -0.257589 -0.472441 -1.02022 0.620475 -0.118827 -0.349473 0.126985 0.267802 -0.028621 -0.153415 0.173178 0.00575747 0.0453284 0.359096 -0.0507524 0.202711 0.301541 0.27932 0.200713 0.548793 0.223182
25 -0.0437702 -0.292412 0.120763 -0.389284 -0.11294 0.114685 -0.0542971 0.454927 -0.138041 0.242793 0.286177 -0.342206 -0.665446 -1.3169 0.607105 0.174842 -0.397396 -0.141335 -0.0473194 -0.297159 -0.242986 -0.318935 -0.155116 0.346841 -0.0101753 0.00593001 0.0446182 0.395828 -0.16239 0.384019 0.813177 0.553008
